digraph Tree {
node [shape=box] ;
0 [label="CHits <= 459.5\nmse = 170812.14\nsamples = 197\nvalue = 520.517"] ;
1 [label="CWalks <= 7.5\nmse = 57935.089\nsamples = 91\nvalue = 243.632"] ;
0 -> 1 [labeldistance=2.5, labelangle=45, headlabel="True"] ;
2 [label="mse = 0.0\nsamples = 1\nvalue = 2127.333"] ;
1 -> 2 ;
3 [label="CAtBat <= 1257.5\nmse = 18714.858\nsamples = 90\nvalue = 222.702"] ;
1 -> 3 ;
4 [label="CAtBat <= 728.5\nmse = 4990.744\nsamples = 63\nvalue = 155.939"] ;
3 -> 4 ;
5 [label="CRBI <= 51.0\nmse = 1187.938\nsamples = 38\nvalue = 113.329"] ;
4 -> 5 ;
6 [label="Hits <= 33.5\nmse = 753.678\nsamples = 27\nvalue = 98.87"] ;
5 -> 6 ;
7 [label="mse = 0.0\nsamples = 1\nvalue = 190.0"] ;
6 -> 7 ;
8 [label="CHits <= 82.0\nmse = 450.972\nsamples = 26\nvalue = 95.365"] ;
6 -> 8 ;
9 [label="CRuns <= 40.0\nmse = 89.099\nsamples = 9\nvalue = 75.611"] ;
8 -> 9 ;
10 [label="PutOuts <= 384.0\nmse = 47.371\nsamples = 8\nvalue = 73.188"] ;
9 -> 10 ;
11 [label="CHmRun <= 2.5\nmse = 7.99\nsamples = 7\nvalue = 70.786"] ;
10 -> 11 ;
12 [label="CRBI <= 29.0\nmse = 5.556\nsamples = 3\nvalue = 73.333"] ;
11 -> 12 ;
13 [label="mse = 0.0\nsamples = 2\nvalue = 75.0"] ;
12 -> 13 ;
14 [label="mse = 0.0\nsamples = 1\nvalue = 70.0"] ;
12 -> 14 ;
15 [label="Errors <= 8.5\nmse = 1.297\nsamples = 4\nvalue = 68.875"] ;
11 -> 15 ;
16 [label="CWalks <= 28.5\nmse = 0.062\nsamples = 2\nvalue = 67.75"] ;
15 -> 16 ;
17 [label="mse = 0.0\nsamples = 1\nvalue = 68.0"] ;
16 -> 17 ;
18 [label="mse = 0.0\nsamples = 1\nvalue = 67.5"] ;
16 -> 18 ;
19 [label="mse = 0.0\nsamples = 2\nvalue = 70.0"] ;
15 -> 19 ;
20 [label="mse = 0.0\nsamples = 1\nvalue = 90.0"] ;
10 -> 20 ;
21 [label="mse = 0.0\nsamples = 1\nvalue = 95.0"] ;
9 -> 21 ;
22 [label="HmRun <= 5.5\nmse = 326.587\nsamples = 17\nvalue = 105.824"] ;
8 -> 22 ;
23 [label="CHits <= 114.5\nmse = 176.543\nsamples = 9\nvalue = 96.389"] ;
22 -> 23 ;
24 [label="HmRun <= 2.5\nmse = 36.0\nsamples = 5\nvalue = 107.0"] ;
23 -> 24 ;
25 [label="mse = 0.0\nsamples = 2\nvalue = 100.0"] ;
24 -> 25 ;
26 [label="Assists <= 18.5\nmse = 5.556\nsamples = 3\nvalue = 111.667"] ;
24 -> 26 ;
27 [label="mse = 0.0\nsamples = 2\nvalue = 110.0"] ;
26 -> 27 ;
28 [label="mse = 0.0\nsamples = 1\nvalue = 115.0"] ;
26 -> 28 ;
29 [label="CRBI <= 38.5\nmse = 35.547\nsamples = 4\nvalue = 83.125"] ;
23 -> 29 ;
30 [label="PutOuts <= 187.5\nmse = 1.562\nsamples = 2\nvalue = 88.75"] ;
29 -> 30 ;
31 [label="mse = 0.0\nsamples = 1\nvalue = 90.0"] ;
30 -> 31 ;
32 [label="mse = 0.0\nsamples = 1\nvalue = 87.5"] ;
30 -> 32 ;
33 [label="CRuns <= 73.0\nmse = 6.25\nsamples = 2\nvalue = 77.5"] ;
29 -> 33 ;
34 [label="mse = 0.0\nsamples = 1\nvalue = 75.0"] ;
33 -> 34 ;
35 [label="mse = 0.0\nsamples = 1\nvalue = 80.0"] ;
33 -> 35 ;
36 [label="PutOuts <= 267.5\nmse = 282.59\nsamples = 8\nvalue = 116.438"] ;
22 -> 36 ;
37 [label="CWalks <= 37.5\nmse = 154.688\nsamples = 4\nvalue = 128.75"] ;
36 -> 37 ;
38 [label="HmRun <= 9.0\nmse = 56.25\nsamples = 2\nvalue = 117.5"] ;
37 -> 38 ;
39 [label="mse = 0.0\nsamples = 1\nvalue = 110.0"] ;
38 -> 39 ;
40 [label="mse = 0.0\nsamples = 1\nvalue = 125.0"] ;
38 -> 40 ;
41 [label="mse = 0.0\nsamples = 2\nvalue = 140.0"] ;
37 -> 41 ;
42 [label="Errors <= 8.5\nmse = 107.297\nsamples = 4\nvalue = 104.125"] ;
36 -> 42 ;
43 [label="Walks <= 41.0\nmse = 31.056\nsamples = 3\nvalue = 98.833"] ;
42 -> 43 ;
44 [label="mse = 0.0\nsamples = 1\nvalue = 91.5"] ;
43 -> 44 ;
45 [label="CHmRun <= 12.0\nmse = 6.25\nsamples = 2\nvalue = 102.5"] ;
43 -> 45 ;
46 [label="mse = 0.0\nsamples = 1\nvalue = 105.0"] ;
45 -> 46 ;
47 [label="mse = 0.0\nsamples = 1\nvalue = 100.0"] ;
45 -> 47 ;
48 [label="mse = 0.0\nsamples = 1\nvalue = 120.0"] ;
42 -> 48 ;
49 [label="CRuns <= 67.5\nmse = 481.24\nsamples = 11\nvalue = 148.818"] ;
5 -> 49 ;
50 [label="AtBat <= 169.0\nmse = 105.556\nsamples = 3\nvalue = 121.667"] ;
49 -> 50 ;
51 [label="mse = 0.0\nsamples = 1\nvalue = 135.0"] ;
50 -> 51 ;
52 [label="CHits <= 114.5\nmse = 25.0\nsamples = 2\nvalue = 115.0"] ;
50 -> 52 ;
53 [label="mse = 0.0\nsamples = 1\nvalue = 110.0"] ;
52 -> 53 ;
54 [label="mse = 0.0\nsamples = 1\nvalue = 120.0"] ;
52 -> 54 ;
55 [label="Assists <= 32.0\nmse = 242.0\nsamples = 8\nvalue = 159.0"] ;
49 -> 55 ;
56 [label="CHits <= 166.5\nmse = 29.5\nsamples = 4\nvalue = 173.0"] ;
55 -> 56 ;
57 [label="CRBI <= 82.0\nmse = 10.889\nsamples = 3\nvalue = 175.667"] ;
56 -> 57 ;
58 [label="mse = 0.0\nsamples = 1\nvalue = 180.0"] ;
57 -> 58 ;
59 [label="CRuns <= 81.0\nmse = 2.25\nsamples = 2\nvalue = 173.5"] ;
57 -> 59 ;
60 [label="mse = 0.0\nsamples = 1\nvalue = 175.0"] ;
59 -> 60 ;
61 [label="mse = 0.0\nsamples = 1\nvalue = 172.0"] ;
59 -> 61 ;
62 [label="mse = 0.0\nsamples = 1\nvalue = 165.0"] ;
56 -> 62 ;
63 [label="PutOuts <= 170.0\nmse = 62.5\nsamples = 4\nvalue = 145.0"] ;
55 -> 63 ;
64 [label="Years <= 2.5\nmse = 6.25\nsamples = 2\nvalue = 137.5"] ;
63 -> 64 ;
65 [label="mse = 0.0\nsamples = 1\nvalue = 135.0"] ;
64 -> 65 ;
66 [label="mse = 0.0\nsamples = 1\nvalue = 140.0"] ;
64 -> 66 ;
67 [label="HmRun <= 6.5\nmse = 6.25\nsamples = 2\nvalue = 152.5"] ;
63 -> 67 ;
68 [label="mse = 0.0\nsamples = 1\nvalue = 150.0"] ;
67 -> 68 ;
69 [label="mse = 0.0\nsamples = 1\nvalue = 155.0"] ;
67 -> 69 ;
70 [label="AtBat <= 406.0\nmse = 3816.42\nsamples = 25\nvalue = 220.707"] ;
4 -> 70 ;
71 [label="Runs <= 45.5\nmse = 3125.699\nsamples = 13\nvalue = 260.205"] ;
70 -> 71 ;
72 [label="Runs <= 39.5\nmse = 1222.988\nsamples = 12\nvalue = 247.306"] ;
71 -> 72 ;
73 [label="CWalks <= 116.0\nmse = 693.085\nsamples = 10\nvalue = 258.667"] ;
72 -> 73 ;
74 [label="Hits <= 45.0\nmse = 296.173\nsamples = 8\nvalue = 248.021"] ;
73 -> 74 ;
75 [label="mse = 0.0\nsamples = 1\nvalue = 286.667"] ;
74 -> 75 ;
76 [label="CRBI <= 70.0\nmse = 94.643\nsamples = 7\nvalue = 242.5"] ;
74 -> 76 ;
77 [label="AtBat <= 226.0\nmse = 6.25\nsamples = 2\nvalue = 227.5"] ;
76 -> 77 ;
78 [label="mse = 0.0\nsamples = 1\nvalue = 225.0"] ;
77 -> 78 ;
79 [label="mse = 0.0\nsamples = 1\nvalue = 230.0"] ;
77 -> 79 ;
80 [label="AtBat <= 225.5\nmse = 4.0\nsamples = 5\nvalue = 248.5"] ;
76 -> 80 ;
81 [label="AtBat <= 199.0\nmse = 1.562\nsamples = 2\nvalue = 246.25"] ;
80 -> 81 ;
82 [label="mse = 0.0\nsamples = 1\nvalue = 245.0"] ;
81 -> 82 ;
83 [label="mse = 0.0\nsamples = 1\nvalue = 247.5"] ;
81 -> 83 ;
84 [label="mse = 0.0\nsamples = 3\nvalue = 250.0"] ;
80 -> 84 ;
85 [label="CAtBat <= 1092.0\nmse = 14.062\nsamples = 2\nvalue = 301.25"] ;
73 -> 85 ;
86 [label="mse = 0.0\nsamples = 1\nvalue = 305.0"] ;
85 -> 86 ;
87 [label="mse = 0.0\nsamples = 1\nvalue = 297.5"] ;
85 -> 87 ;
88 [label="RBI <= 30.5\nmse = 0.25\nsamples = 2\nvalue = 190.5"] ;
72 -> 88 ;
89 [label="mse = 0.0\nsamples = 1\nvalue = 190.0"] ;
88 -> 89 ;
90 [label="mse = 0.0\nsamples = 1\nvalue = 191.0"] ;
88 -> 90 ;
91 [label="mse = 0.0\nsamples = 1\nvalue = 415.0"] ;
71 -> 91 ;
92 [label="Errors <= 21.0\nmse = 1043.576\nsamples = 12\nvalue = 177.917"] ;
70 -> 92 ;
93 [label="CAtBat <= 1035.0\nmse = 335.938\nsamples = 8\nvalue = 196.25"] ;
92 -> 93 ;
94 [label="CRBI <= 113.5\nmse = 61.806\nsamples = 6\nvalue = 205.833"] ;
93 -> 94 ;
95 [label="Assists <= 12.5\nmse = 29.688\nsamples = 4\nvalue = 201.25"] ;
94 -> 95 ;
96 [label="mse = 0.0\nsamples = 1\nvalue = 210.0"] ;
95 -> 96 ;
97 [label="AtBat <= 487.5\nmse = 5.556\nsamples = 3\nvalue = 198.333"] ;
95 -> 97 ;
98 [label="mse = 0.0\nsamples = 1\nvalue = 195.0"] ;
97 -> 98 ;
99 [label="mse = 0.0\nsamples = 2\nvalue = 200.0"] ;
97 -> 99 ;
100 [label="mse = 0.0\nsamples = 2\nvalue = 215.0"] ;
94 -> 100 ;
101 [label="Assists <= 147.5\nmse = 56.25\nsamples = 2\nvalue = 167.5"] ;
93 -> 101 ;
102 [label="mse = 0.0\nsamples = 1\nvalue = 160.0"] ;
101 -> 102 ;
103 [label="mse = 0.0\nsamples = 1\nvalue = 175.0"] ;
101 -> 103 ;
104 [label="HmRun <= 18.5\nmse = 442.188\nsamples = 4\nvalue = 141.25"] ;
92 -> 104 ;
105 [label="Runs <= 55.0\nmse = 5.556\nsamples = 3\nvalue = 153.333"] ;
104 -> 105 ;
106 [label="mse = 0.0\nsamples = 1\nvalue = 150.0"] ;
105 -> 106 ;
107 [label="mse = 0.0\nsamples = 2\nvalue = 155.0"] ;
105 -> 107 ;
108 [label="mse = 0.0\nsamples = 1\nvalue = 105.0"] ;
104 -> 108 ;
109 [label="HmRun <= 24.0\nmse = 16070.231\nsamples = 27\nvalue = 378.481"] ;
3 -> 109 ;
110 [label="HmRun <= 12.0\nmse = 12645.442\nsamples = 25\nvalue = 396.76"] ;
109 -> 110 ;
111 [label="CRuns <= 214.0\nmse = 6113.257\nsamples = 16\nvalue = 338.906"] ;
110 -> 111 ;
112 [label="Errors <= 18.5\nmse = 4748.394\nsamples = 12\nvalue = 311.458"] ;
111 -> 112 ;
113 [label="CRBI <= 116.0\nmse = 2905.062\nsamples = 11\nvalue = 325.227"] ;
112 -> 113 ;
114 [label="mse = 0.0\nsamples = 1\nvalue = 210.0"] ;
113 -> 114 ;
115 [label="PutOuts <= 117.5\nmse = 1735.062\nsamples = 10\nvalue = 336.75"] ;
113 -> 115 ;
116 [label="CHits <= 337.5\nmse = 625.0\nsamples = 2\nvalue = 400.0"] ;
115 -> 116 ;
117 [label="mse = 0.0\nsamples = 1\nvalue = 375.0"] ;
116 -> 117 ;
118 [label="mse = 0.0\nsamples = 1\nvalue = 425.0"] ;
116 -> 118 ;
119 [label="Runs <= 60.5\nmse = 762.402\nsamples = 8\nvalue = 320.938"] ;
115 -> 119 ;
120 [label="CHmRun <= 46.0\nmse = 641.146\nsamples = 6\nvalue = 311.25"] ;
119 -> 120 ;
121 [label="CHits <= 349.5\nmse = 94.922\nsamples = 4\nvalue = 294.375"] ;
120 -> 121 ;
122 [label="mse = 0.0\nsamples = 3\nvalue = 300.0"] ;
121 -> 122 ;
123 [label="mse = 0.0\nsamples = 1\nvalue = 277.5"] ;
121 -> 123 ;
124 [label="Walks <= 42.0\nmse = 25.0\nsamples = 2\nvalue = 345.0"] ;
120 -> 124 ;
125 [label="mse = 0.0\nsamples = 1\nvalue = 340.0"] ;
124 -> 125 ;
126 [label="mse = 0.0\nsamples = 1\nvalue = 350.0"] ;
124 -> 126 ;
127 [label="mse = 0.0\nsamples = 2\nvalue = 350.0"] ;
119 -> 127 ;
128 [label="mse = 0.0\nsamples = 1\nvalue = 160.0"] ;
112 -> 128 ;
129 [label="Errors <= 13.0\nmse = 1167.188\nsamples = 4\nvalue = 421.25"] ;
111 -> 129 ;
130 [label="RBI <= 47.5\nmse = 272.222\nsamples = 3\nvalue = 403.333"] ;
129 -> 130 ;
131 [label="Hits <= 105.0\nmse = 56.25\nsamples = 2\nvalue = 392.5"] ;
130 -> 131 ;
132 [label="mse = 0.0\nsamples = 1\nvalue = 400.0"] ;
131 -> 132 ;
133 [label="mse = 0.0\nsamples = 1\nvalue = 385.0"] ;
131 -> 133 ;
134 [label="mse = 0.0\nsamples = 1\nvalue = 425.0"] ;
130 -> 134 ;
135 [label="mse = 0.0\nsamples = 1\nvalue = 475.0"] ;
129 -> 135 ;
136 [label="Years <= 6.5\nmse = 7729.543\nsamples = 9\nvalue = 499.611"] ;
110 -> 136 ;
137 [label="Errors <= 4.5\nmse = 3048.84\nsamples = 8\nvalue = 474.562"] ;
136 -> 137 ;
138 [label="Runs <= 36.0\nmse = 422.722\nsamples = 3\nvalue = 413.833"] ;
137 -> 138 ;
139 [label="mse = 0.0\nsamples = 1\nvalue = 385.0"] ;
138 -> 139 ;
140 [label="Walks <= 25.5\nmse = 10.562\nsamples = 2\nvalue = 428.25"] ;
138 -> 140 ;
141 [label="mse = 0.0\nsamples = 1\nvalue = 431.5"] ;
140 -> 141 ;
142 [label="mse = 0.0\nsamples = 1\nvalue = 425.0"] ;
140 -> 142 ;
143 [label="Assists <= 34.0\nmse = 1084.0\nsamples = 5\nvalue = 511.0"] ;
137 -> 143 ;
144 [label="mse = 0.0\nsamples = 2\nvalue = 550.0"] ;
143 -> 144 ;
145 [label="Walks <= 38.5\nmse = 116.667\nsamples = 3\nvalue = 485.0"] ;
143 -> 145 ;
146 [label="mse = 0.0\nsamples = 1\nvalue = 500.0"] ;
145 -> 146 ;
147 [label="CAtBat <= 1487.0\nmse = 6.25\nsamples = 2\nvalue = 477.5"] ;
145 -> 147 ;
148 [label="mse = 0.0\nsamples = 1\nvalue = 475.0"] ;
147 -> 148 ;
149 [label="mse = 0.0\nsamples = 1\nvalue = 480.0"] ;
147 -> 149 ;
150 [label="mse = 0.0\nsamples = 1\nvalue = 700.0"] ;
136 -> 150 ;
151 [label="CAtBat <= 1593.5\nmse = 2500.0\nsamples = 2\nvalue = 150.0"] ;
109 -> 151 ;
152 [label="mse = 0.0\nsamples = 1\nvalue = 200.0"] ;
151 -> 152 ;
153 [label="mse = 0.0\nsamples = 1\nvalue = 100.0"] ;
151 -> 153 ;
154 [label="AtBat <= 426.5\nmse = 145396.854\nsamples = 106\nvalue = 758.22"] ;
0 -> 154 [labeldistance=2.5, labelangle=-45, headlabel="False"] ;
155 [label="AtBat <= 369.0\nmse = 49914.801\nsamples = 41\nvalue = 514.411"] ;
154 -> 155 ;
156 [label="RBI <= 18.5\nmse = 47713.494\nsamples = 29\nvalue = 455.603"] ;
155 -> 156 ;
157 [label="mse = 0.0\nsamples = 1\nvalue = 900.0"] ;
156 -> 157 ;
158 [label="HmRun <= 12.5\nmse = 42112.497\nsamples = 28\nvalue = 439.732"] ;
156 -> 158 ;
159 [label="PutOuts <= 230.0\nmse = 22469.98\nsamples = 21\nvalue = 389.405"] ;
158 -> 159 ;
160 [label="Assists <= 4.5\nmse = 19311.348\nsamples = 17\nvalue = 351.765"] ;
159 -> 160 ;
161 [label="PutOuts <= 157.0\nmse = 5416.667\nsamples = 3\nvalue = 200.0"] ;
160 -> 161 ;
162 [label="CHmRun <= 75.0\nmse = 625.0\nsamples = 2\nvalue = 250.0"] ;
161 -> 162 ;
163 [label="mse = 0.0\nsamples = 1\nvalue = 275.0"] ;
162 -> 163 ;
164 [label="mse = 0.0\nsamples = 1\nvalue = 225.0"] ;
162 -> 164 ;
165 [label="mse = 0.0\nsamples = 1\nvalue = 100.0"] ;
161 -> 165 ;
166 [label="Assists <= 7.0\nmse = 16295.618\nsamples = 14\nvalue = 384.286"] ;
160 -> 166 ;
167 [label="mse = 0.0\nsamples = 1\nvalue = 737.5"] ;
166 -> 167 ;
168 [label="CRuns <= 984.5\nmse = 7213.955\nsamples = 13\nvalue = 357.115"] ;
166 -> 168 ;
169 [label="AtBat <= 264.0\nmse = 5425.866\nsamples = 11\nvalue = 335.682"] ;
168 -> 169 ;
170 [label="CRBI <= 492.5\nmse = 167.188\nsamples = 4\nvalue = 256.25"] ;
169 -> 170 ;
171 [label="CAtBat <= 3570.5\nmse = 25.0\nsamples = 2\nvalue = 245.0"] ;
170 -> 171 ;
172 [label="mse = 0.0\nsamples = 1\nvalue = 240.0"] ;
171 -> 172 ;
173 [label="mse = 0.0\nsamples = 1\nvalue = 250.0"] ;
171 -> 173 ;
174 [label="CRuns <= 722.0\nmse = 56.25\nsamples = 2\nvalue = 267.5"] ;
170 -> 174 ;
175 [label="mse = 0.0\nsamples = 1\nvalue = 275.0"] ;
174 -> 175 ;
176 [label="mse = 0.0\nsamples = 1\nvalue = 260.0"] ;
174 -> 176 ;
177 [label="HmRun <= 4.0\nmse = 2765.216\nsamples = 7\nvalue = 381.072"] ;
169 -> 177 ;
178 [label="PutOuts <= 144.0\nmse = 266.448\nsamples = 4\nvalue = 337.708"] ;
177 -> 178 ;
179 [label="CRuns <= 265.5\nmse = 108.503\nsamples = 2\nvalue = 352.083"] ;
178 -> 179 ;
180 [label="mse = 0.0\nsamples = 1\nvalue = 362.5"] ;
179 -> 180 ;
181 [label="mse = 0.0\nsamples = 1\nvalue = 341.667"] ;
179 -> 181 ;
182 [label="Errors <= 6.5\nmse = 11.112\nsamples = 2\nvalue = 323.334"] ;
178 -> 182 ;
183 [label="mse = 0.0\nsamples = 1\nvalue = 326.667"] ;
182 -> 183 ;
184 [label="mse = 0.0\nsamples = 1\nvalue = 320.0"] ;
182 -> 184 ;
185 [label="Assists <= 173.5\nmse = 246.909\nsamples = 3\nvalue = 438.889"] ;
177 -> 185 ;
186 [label="mse = 0.0\nsamples = 2\nvalue = 450.0"] ;
185 -> 186 ;
187 [label="mse = 0.0\nsamples = 1\nvalue = 416.667"] ;
185 -> 187 ;
188 [label="HmRun <= 5.5\nmse = 625.0\nsamples = 2\nvalue = 475.0"] ;
168 -> 188 ;
189 [label="mse = 0.0\nsamples = 1\nvalue = 500.0"] ;
188 -> 189 ;
190 [label="mse = 0.0\nsamples = 1\nvalue = 450.0"] ;
188 -> 190 ;
191 [label="PutOuts <= 281.5\nmse = 4282.422\nsamples = 4\nvalue = 549.375"] ;
159 -> 191 ;
192 [label="Errors <= 7.0\nmse = 2025.0\nsamples = 2\nvalue = 605.0"] ;
191 -> 192 ;
193 [label="mse = 0.0\nsamples = 1\nvalue = 560.0"] ;
192 -> 193 ;
194 [label="mse = 0.0\nsamples = 1\nvalue = 650.0"] ;
192 -> 194 ;
195 [label="Runs <= 27.5\nmse = 351.562\nsamples = 2\nvalue = 493.75"] ;
191 -> 195 ;
196 [label="mse = 0.0\nsamples = 1\nvalue = 475.0"] ;
195 -> 196 ;
197 [label="mse = 0.0\nsamples = 1\nvalue = 512.5"] ;
195 -> 197 ;
198 [label="Runs <= 39.0\nmse = 70645.918\nsamples = 7\nvalue = 590.714"] ;
158 -> 198 ;
199 [label="Errors <= 8.0\nmse = 6806.25\nsamples = 2\nvalue = 282.5"] ;
198 -> 199 ;
200 [label="mse = 0.0\nsamples = 1\nvalue = 365.0"] ;
199 -> 200 ;
201 [label="mse = 0.0\nsamples = 1\nvalue = 200.0"] ;
199 -> 201 ;
202 [label="CRuns <= 940.0\nmse = 42984.0\nsamples = 5\nvalue = 714.0"] ;
198 -> 202 ;
203 [label="Runs <= 43.5\nmse = 18450.0\nsamples = 4\nvalue = 630.0"] ;
202 -> 203 ;
204 [label="mse = 0.0\nsamples = 1\nvalue = 400.0"] ;
203 -> 204 ;
205 [label="CHmRun <= 72.5\nmse = 1088.889\nsamples = 3\nvalue = 706.667"] ;
203 -> 205 ;
206 [label="mse = 0.0\nsamples = 1\nvalue = 750.0"] ;
205 -> 206 ;
207 [label="Walks <= 26.5\nmse = 225.0\nsamples = 2\nvalue = 685.0"] ;
205 -> 207 ;
208 [label="mse = 0.0\nsamples = 1\nvalue = 700.0"] ;
207 -> 208 ;
209 [label="mse = 0.0\nsamples = 1\nvalue = 670.0"] ;
207 -> 209 ;
210 [label="mse = 0.0\nsamples = 1\nvalue = 1050.0"] ;
202 -> 210 ;
211 [label="Errors <= 4.5\nmse = 26679.838\nsamples = 12\nvalue = 656.528"] ;
155 -> 211 ;
212 [label="CRuns <= 310.0\nmse = 12772.222\nsamples = 3\nvalue = 471.667"] ;
211 -> 212 ;
213 [label="mse = 0.0\nsamples = 1\nvalue = 325.0"] ;
212 -> 213 ;
214 [label="Assists <= 7.0\nmse = 3025.0\nsamples = 2\nvalue = 545.0"] ;
212 -> 214 ;
215 [label="mse = 0.0\nsamples = 1\nvalue = 490.0"] ;
214 -> 215 ;
216 [label="mse = 0.0\nsamples = 1\nvalue = 600.0"] ;
214 -> 216 ;
217 [label="HmRun <= 4.5\nmse = 16127.434\nsamples = 9\nvalue = 718.148"] ;
211 -> 217 ;
218 [label="CHmRun <= 32.5\nmse = 56.25\nsamples = 2\nvalue = 542.5"] ;
217 -> 218 ;
219 [label="mse = 0.0\nsamples = 1\nvalue = 550.0"] ;
218 -> 219 ;
220 [label="mse = 0.0\nsamples = 1\nvalue = 535.0"] ;
218 -> 220 ;
221 [label="HmRun <= 11.0\nmse = 9385.718\nsamples = 7\nvalue = 768.333"] ;
217 -> 221 ;
222 [label="Assists <= 35.5\nmse = 742.187\nsamples = 4\nvalue = 843.75"] ;
221 -> 222 ;
223 [label="mse = 0.0\nsamples = 1\nvalue = 800.0"] ;
222 -> 223 ;
224 [label="Hits <= 100.0\nmse = 138.889\nsamples = 3\nvalue = 858.333"] ;
222 -> 224 ;
225 [label="mse = 0.0\nsamples = 1\nvalue = 875.0"] ;
224 -> 225 ;
226 [label="mse = 0.0\nsamples = 2\nvalue = 850.0"] ;
224 -> 226 ;
227 [label="CRBI <= 480.0\nmse = 3215.418\nsamples = 3\nvalue = 667.778"] ;
221 -> 227 ;
228 [label="mse = 0.0\nsamples = 1\nvalue = 595.0"] ;
227 -> 228 ;
229 [label="Years <= 13.5\nmse = 850.685\nsamples = 2\nvalue = 704.166"] ;
227 -> 229 ;
230 [label="mse = 0.0\nsamples = 1\nvalue = 675.0"] ;
229 -> 230 ;
231 [label="mse = 0.0\nsamples = 1\nvalue = 733.333"] ;
229 -> 231 ;
232 [label="CRBI <= 315.0\nmse = 144478.624\nsamples = 65\nvalue = 912.007"] ;
154 -> 232 ;
233 [label="AtBat <= 629.0\nmse = 34627.679\nsamples = 14\nvalue = 617.5"] ;
232 -> 233 ;
234 [label="CHits <= 690.0\nmse = 8042.562\nsamples = 11\nvalue = 677.273"] ;
233 -> 234 ;
235 [label="CHmRun <= 30.5\nmse = 495.139\nsamples = 6\nvalue = 605.833"] ;
234 -> 235 ;
236 [label="Errors <= 11.5\nmse = 6.25\nsamples = 2\nvalue = 577.5"] ;
235 -> 236 ;
237 [label="mse = 0.0\nsamples = 1\nvalue = 580.0"] ;
236 -> 237 ;
238 [label="mse = 0.0\nsamples = 1\nvalue = 575.0"] ;
236 -> 238 ;
239 [label="Years <= 5.5\nmse = 137.5\nsamples = 4\nvalue = 620.0"] ;
235 -> 239 ;
240 [label="CHits <= 466.0\nmse = 5.556\nsamples = 3\nvalue = 626.667"] ;
239 -> 240 ;
241 [label="mse = 0.0\nsamples = 1\nvalue = 630.0"] ;
240 -> 241 ;
242 [label="mse = 0.0\nsamples = 2\nvalue = 625.0"] ;
240 -> 242 ;
243 [label="mse = 0.0\nsamples = 1\nvalue = 600.0"] ;
239 -> 243 ;
244 [label="AtBat <= 496.5\nmse = 3626.0\nsamples = 5\nvalue = 763.0"] ;
234 -> 244 ;
245 [label="mse = 0.0\nsamples = 1\nvalue = 875.0"] ;
244 -> 245 ;
246 [label="PutOuts <= 346.0\nmse = 612.5\nsamples = 4\nvalue = 735.0"] ;
244 -> 246 ;
247 [label="CAtBat <= 3063.0\nmse = 156.25\nsamples = 2\nvalue = 712.5"] ;
246 -> 247 ;
248 [label="mse = 0.0\nsamples = 1\nvalue = 700.0"] ;
247 -> 248 ;
249 [label="mse = 0.0\nsamples = 1\nvalue = 725.0"] ;
247 -> 249 ;
250 [label="Errors <= 11.0\nmse = 56.25\nsamples = 2\nvalue = 757.5"] ;
246 -> 250 ;
251 [label="mse = 0.0\nsamples = 1\nvalue = 765.0"] ;
250 -> 251 ;
252 [label="mse = 0.0\nsamples = 1\nvalue = 750.0"] ;
250 -> 252 ;
253 [label="Errors <= 5.0\nmse = 70972.222\nsamples = 3\nvalue = 398.333"] ;
233 -> 253 ;
254 [label="mse = 0.0\nsamples = 1\nvalue = 740.0"] ;
253 -> 254 ;
255 [label="CWalks <= 182.5\nmse = 18906.25\nsamples = 2\nvalue = 227.5"] ;
253 -> 255 ;
256 [label="mse = 0.0\nsamples = 1\nvalue = 365.0"] ;
255 -> 256 ;
257 [label="mse = 0.0\nsamples = 1\nvalue = 90.0"] ;
255 -> 257 ;
258 [label="Runs <= 112.0\nmse = 144288.363\nsamples = 51\nvalue = 992.852"] ;
232 -> 258 ;
259 [label="Walks <= 64.5\nmse = 119987.244\nsamples = 49\nvalue = 958.989"] ;
258 -> 259 ;
260 [label="Assists <= 187.0\nmse = 63649.241\nsamples = 32\nvalue = 834.833"] ;
259 -> 260 ;
261 [label="AtBat <= 503.0\nmse = 61930.505\nsamples = 19\nvalue = 936.184"] ;
260 -> 261 ;
262 [label="HmRun <= 9.5\nmse = 51950.891\nsamples = 9\nvalue = 768.981"] ;
261 -> 262 ;
263 [label="mse = 0.0\nsamples = 1\nvalue = 1260.0"] ;
262 -> 263 ;
264 [label="CWalks <= 526.0\nmse = 24540.175\nsamples = 8\nvalue = 707.604"] ;
262 -> 264 ;
265 [label="Runs <= 64.5\nmse = 9500.0\nsamples = 5\nvalue = 612.5"] ;
264 -> 265 ;
266 [label="Walks <= 44.5\nmse = 625.0\nsamples = 2\nvalue = 725.0"] ;
265 -> 266 ;
267 [label="mse = 0.0\nsamples = 1\nvalue = 750.0"] ;
266 -> 267 ;
268 [label="mse = 0.0\nsamples = 1\nvalue = 700.0"] ;
266 -> 268 ;
269 [label="CRBI <= 839.0\nmse = 1354.167\nsamples = 3\nvalue = 537.5"] ;
265 -> 269 ;
270 [label="CRBI <= 634.0\nmse = 156.25\nsamples = 2\nvalue = 512.5"] ;
269 -> 270 ;
271 [label="mse = 0.0\nsamples = 1\nvalue = 525.0"] ;
270 -> 271 ;
272 [label="mse = 0.0\nsamples = 1\nvalue = 500.0"] ;
270 -> 272 ;
273 [label="mse = 0.0\nsamples = 1\nvalue = 587.5"] ;
269 -> 273 ;
274 [label="Hits <= 141.5\nmse = 9408.045\nsamples = 3\nvalue = 866.111"] ;
264 -> 274 ;
275 [label="PutOuts <= 461.5\nmse = 667.37\nsamples = 2\nvalue = 799.166"] ;
274 -> 275 ;
276 [label="mse = 0.0\nsamples = 1\nvalue = 773.333"] ;
275 -> 276 ;
277 [label="mse = 0.0\nsamples = 1\nvalue = 825.0"] ;
275 -> 277 ;
278 [label="mse = -0.0\nsamples = 1\nvalue = 1000.0"] ;
274 -> 278 ;
279 [label="CAtBat <= 8152.5\nmse = 23106.119\nsamples = 10\nvalue = 1086.667"] ;
261 -> 279 ;
280 [label="Assists <= 16.0\nmse = 9375.792\nsamples = 9\nvalue = 1046.296"] ;
279 -> 280 ;
281 [label="HmRun <= 16.5\nmse = 1551.102\nsamples = 5\nvalue = 976.667"] ;
280 -> 281 ;
282 [label="Years <= 10.0\nmse = 469.437\nsamples = 2\nvalue = 1021.666"] ;
281 -> 282 ;
283 [label="mse = 0.0\nsamples = 1\nvalue = 1043.333"] ;
282 -> 283 ;
284 [label="mse = 0.0\nsamples = 1\nvalue = 1000.0"] ;
282 -> 284 ;
285 [label="CAtBat <= 3259.5\nmse = 22.222\nsamples = 3\nvalue = 946.667"] ;
281 -> 285 ;
286 [label="mse = 0.0\nsamples = 1\nvalue = 940.0"] ;
285 -> 286 ;
287 [label="mse = 0.0\nsamples = 2\nvalue = 950.0"] ;
285 -> 287 ;
288 [label="Hits <= 139.5\nmse = 5520.854\nsamples = 4\nvalue = 1133.333"] ;
280 -> 288 ;
289 [label="mse = 0.0\nsamples = 1\nvalue = 1008.333"] ;
288 -> 289 ;
290 [label="AtBat <= 550.5\nmse = 416.667\nsamples = 3\nvalue = 1175.0"] ;
288 -> 290 ;
291 [label="mse = 0.0\nsamples = 1\nvalue = 1150.0"] ;
290 -> 291 ;
292 [label="Runs <= 90.5\nmse = 156.25\nsamples = 2\nvalue = 1187.5"] ;
290 -> 292 ;
293 [label="mse = 0.0\nsamples = 1\nvalue = 1200.0"] ;
292 -> 293 ;
294 [label="mse = 0.0\nsamples = 1\nvalue = 1175.0"] ;
292 -> 294 ;
295 [label="mse = 0.0\nsamples = 1\nvalue = 1450.0"] ;
279 -> 295 ;
296 [label="PutOuts <= 93.0\nmse = 29205.827\nsamples = 13\nvalue = 686.703"] ;
260 -> 296 ;
297 [label="HmRun <= 17.0\nmse = 12376.562\nsamples = 2\nvalue = 388.75"] ;
296 -> 297 ;
298 [label="mse = 0.0\nsamples = 1\nvalue = 500.0"] ;
297 -> 298 ;
299 [label="mse = 0.0\nsamples = 1\nvalue = 277.5"] ;
297 -> 299 ;
300 [label="Walks <= 52.5\nmse = 13189.822\nsamples = 11\nvalue = 740.877"] ;
296 -> 300 ;
301 [label="HmRun <= 24.0\nmse = 3286.111\nsamples = 9\nvalue = 789.167"] ;
300 -> 301 ;
302 [label="Walks <= 29.0\nmse = 1340.051\nsamples = 7\nvalue = 764.643"] ;
301 -> 302 ;
303 [label="mse = 0.0\nsamples = 1\nvalue = 850.0"] ;
302 -> 303 ;
304 [label="CHits <= 743.0\nmse = 146.701\nsamples = 6\nvalue = 750.417"] ;
302 -> 304 ;
305 [label="mse = 0.0\nsamples = 1\nvalue = 775.0"] ;
304 -> 305 ;
306 [label="RBI <= 47.5\nmse = 31.0\nsamples = 5\nvalue = 745.5"] ;
304 -> 306 ;
307 [label="mse = 0.0\nsamples = 1\nvalue = 737.5"] ;
306 -> 307 ;
308 [label="Errors <= 7.5\nmse = 18.75\nsamples = 4\nvalue = 747.5"] ;
306 -> 308 ;
309 [label="mse = 0.0\nsamples = 1\nvalue = 740.0"] ;
308 -> 309 ;
310 [label="mse = 0.0\nsamples = 3\nvalue = 750.0"] ;
308 -> 310 ;
311 [label="Years <= 10.0\nmse = 625.0\nsamples = 2\nvalue = 875.0"] ;
301 -> 311 ;
312 [label="mse = 0.0\nsamples = 1\nvalue = 900.0"] ;
311 -> 312 ;
313 [label="mse = 0.0\nsamples = 1\nvalue = 850.0"] ;
311 -> 313 ;
314 [label="CWalks <= 430.5\nmse = 41.326\nsamples = 2\nvalue = 523.572"] ;
300 -> 314 ;
315 [label="mse = 0.0\nsamples = 1\nvalue = 530.0"] ;
314 -> 315 ;
316 [label="mse = 0.0\nsamples = 1\nvalue = 517.143"] ;
314 -> 316 ;
317 [label="CWalks <= 713.5\nmse = 142400.125\nsamples = 17\nvalue = 1192.696"] ;
259 -> 317 ;
318 [label="CWalks <= 397.0\nmse = 108350.845\nsamples = 13\nvalue = 1322.372"] ;
317 -> 318 ;
319 [label="HmRun <= 16.0\nmse = 31347.185\nsamples = 9\nvalue = 1138.981"] ;
318 -> 319 ;
320 [label="PutOuts <= 327.5\nmse = 3816.667\nsamples = 3\nvalue = 900.0"] ;
319 -> 320 ;
321 [label="mse = 0.0\nsamples = 1\nvalue = 815.0"] ;
320 -> 321 ;
322 [label="CHits <= 865.5\nmse = 306.25\nsamples = 2\nvalue = 942.5"] ;
320 -> 322 ;
323 [label="mse = 0.0\nsamples = 1\nvalue = 960.0"] ;
322 -> 323 ;
324 [label="mse = 0.0\nsamples = 1\nvalue = 925.0"] ;
322 -> 324 ;
325 [label="Runs <= 80.0\nmse = 2278.346\nsamples = 6\nvalue = 1258.472"] ;
319 -> 325 ;
326 [label="CAtBat <= 2408.0\nmse = 336.117\nsamples = 2\nvalue = 1201.666"] ;
325 -> 326 ;
327 [label="mse = 0.0\nsamples = 1\nvalue = 1220.0"] ;
326 -> 327 ;
328 [label="mse = 0.0\nsamples = 1\nvalue = 1183.333"] ;
326 -> 328 ;
329 [label="RBI <= 103.0\nmse = 829.297\nsamples = 4\nvalue = 1286.875"] ;
325 -> 329 ;
330 [label="HmRun <= 28.5\nmse = 22.222\nsamples = 3\nvalue = 1303.333"] ;
329 -> 330 ;
331 [label="mse = 0.0\nsamples = 2\nvalue = 1300.0"] ;
330 -> 331 ;
332 [label="mse = 0.0\nsamples = 1\nvalue = 1310.0"] ;
330 -> 332 ;
333 [label="mse = 0.0\nsamples = 1\nvalue = 1237.5"] ;
329 -> 333 ;
334 [label="PutOuts <= 175.0\nmse = 35675.0\nsamples = 4\nvalue = 1735.0"] ;
318 -> 334 ;
335 [label="Errors <= 17.5\nmse = 2500.0\nsamples = 2\nvalue = 1550.0"] ;
334 -> 335 ;
336 [label="mse = 0.0\nsamples = 1\nvalue = 1500.0"] ;
335 -> 336 ;
337 [label="mse = 0.0\nsamples = 1\nvalue = 1600.0"] ;
335 -> 337 ;
338 [label="PutOuts <= 266.0\nmse = 400.0\nsamples = 2\nvalue = 1920.0"] ;
334 -> 338 ;
339 [label="mse = 0.0\nsamples = 1\nvalue = 1940.0"] ;
338 -> 339 ;
340 [label="mse = 0.0\nsamples = 1\nvalue = 1900.0"] ;
338 -> 340 ;
341 [label="CRBI <= 1072.5\nmse = 20792.188\nsamples = 4\nvalue = 771.25"] ;
317 -> 341 ;
342 [label="Walks <= 81.5\nmse = 2916.667\nsamples = 3\nvalue = 850.0"] ;
341 -> 342 ;
343 [label="mse = 0.0\nsamples = 1\nvalue = 775.0"] ;
342 -> 343 ;
344 [label="Errors <= 11.5\nmse = 156.25\nsamples = 2\nvalue = 887.5"] ;
342 -> 344 ;
345 [label="mse = 0.0\nsamples = 1\nvalue = 900.0"] ;
344 -> 345 ;
346 [label="mse = 0.0\nsamples = 1\nvalue = 875.0"] ;
344 -> 346 ;
347 [label="mse = 0.0\nsamples = 1\nvalue = 535.0"] ;
341 -> 347 ;
348 [label="CHits <= 959.5\nmse = 23256.25\nsamples = 2\nvalue = 1822.5"] ;
258 -> 348 ;
349 [label="mse = 0.0\nsamples = 1\nvalue = 1975.0"] ;
348 -> 349 ;
350 [label="mse = 0.0\nsamples = 1\nvalue = 1670.0"] ;
348 -> 350 ;
}